9 200
出现 -0.00026811362 0.00011821568 0.0025516748 0.0045046364 -0.0046514748 -0.0035584045 0.0032294362 0.004486494 -0.002507714 -0.0018816858 0.0036902523 -0.0007667357 -0.0022683067 0.003277026 -0.0024300802 -0.00090800883 0.0014382899 0.0004959369 -0.0041426076 -0.004724409 0.003655883 0.002535131 0.0033788467 0.00038143276 0.0031754451 -0.0017026829 -0.0004732007 0.0028842867 -0.0037608189 -0.0019680518 -0.003755791 -0.00046502112 0.0047690594 -0.0036595834 -0.0011668843 -0.00096887053 0.0040387185 -0.002965448 2.258122e-05 -0.002376867 -0.0048017753 0.0025036465 -0.0043797926 -0.0021959126 -1.7549992e-05 -0.00014809072 -0.00383062 0.0048073716 0.002491029 0.0046165716 -0.0040789586 0.002247899 -0.002068538 0.00041226804 0.00424931 -0.0022310882 0.0022587501 -0.00339348 -0.0017742444 0.004699254 -0.0007888263 0.00016068578 -0.002070315 -0.003841344 -0.0007540041 0.0012348974 -0.00044401348 0.0027668308 -0.0013714886 0.0011300326 0.0027278971 0.0041729766 -0.0007268703 -0.0046040714 0.0021852762 0.00028589249 0.003720954 -0.00040664137 -0.0013192069 -0.0043765046 -0.00042827844 0.0014132815 0.0027007144 0.0035263281 -0.0028515607 0.00092940987 0.0030444318 -0.0023990255 -0.0015536302 0.0033988147 0.0008157378 9.4958545e-05 0.0017368186 0.000108888744 0.004809413 0.002530302 -0.004458695 -0.0035207802 0.00045072794 0.003196267 -0.0043098438 0.001832869 0.0025949418 0.0028709692 0.0037334592 -0.0030838377 0.0005528068 0.0030236412 -0.0014200252 -0.0030867613 -0.0002051115 -0.0041844742 -0.0028000062 0.0035522694 0.0016762698 0.0036128347 0.0034001237 0.003765371 -0.0018945772 -0.00028090298 0.0011741882 -0.0022595162 0.004194366 -0.004929082 0.0033823205 0.0014572084 -0.0024664158 0.0021990938 -0.00086978736 0.0033556921 0.004982425 -0.0021812217 -0.0002996689 -0.0028478187 0.0019254112 0.0013933134 0.0034455382 0.0030505478 0.0047692484 0.0046367086 0.003949034 -0.003494752 -0.0045779324 -0.00017787635 -0.0015499204 0.0039471583 0.002969287 -0.00077283144 0.0007554817 0.0008950204 0.0039087855 -0.0047550933 -0.00010276556 0.0017345983 -0.0004694861 0.004190886 0.0045053917 0.0032682533 -0.0003558105 0.003855202 -0.0042671673 0.0016035533 -0.0023189986 -0.0025444776 0.0017948091 0.0026851697 0.0038847572 -0.0028832532 0.0037166805 0.0033127482 -0.0018549002 -0.0043728207 0.0027187336 0.0032548779 -0.00039377512 -0.003354928 -0.0035429627 -0.0012485301 0.0025716268 -0.0018326187 -0.00468503 0.0019133699 0.0024422396 -0.0032142818 0.00060427905 -0.0010374385 1.2201667e-05 -0.0049417545 0.0013460022 -0.0023750532 0.00054382323 -0.0007881123 0.0010983365 -0.003940788 -0.001358592 0.0013315993 0.002673341 -0.0011957574 -0.004755047 0.0022529394
时 4.7039448e-05 0.0015389727 -0.0034064017 -0.00068753393 0.0038346695 0.00367348 -0.0018364978 0.0013213097 -0.004158966 0.0031030204 -0.0023186922 -0.0015822845 0.0046561807 0.00043662562 0.0037458001 -0.0030371756 0.002580232 0.0049616313 -0.0042291153 -0.002568062 -0.0035325845 -0.0024312157 -0.0018891455 -0.004268501 0.003978109 -0.002422043 0.0042119725 0.0026311926 -0.0032751653 0.0019788346 0.0027353857 -0.003713619 -0.0037029202 -0.0012374312 -0.004313102 -0.0007907134 -0.00020177373 0.0016501206 0.0007210804 -0.00044096538 -0.002797243 0.00086532295 -0.0004487129 0.003397 0.0019868764 0.0022648165 0.00071720756 -0.0013498948 -0.0021836343 -0.0005161636 0.0007185516 -0.0013230697 -0.0035370886 -0.0039029887 -0.0045610317 -0.002967802 -0.00092370884 -0.0021620365 -0.0032303585 -0.0018589377 0.0021445218 -0.0018697382 0.0041895574 0.00076699787 -0.0036215985 0.0047171423 0.0038157005 0.0027469443 -0.0034248547 0.0029115714 0.0020044192 0.0025928582 0.0021282204 0.00097011944 -0.0015853627 0.0041769957 0.004806177 0.0018962023 -0.0014188179 3.5095657e-06 0.00060942105 -0.0042295787 -0.0041120234 -0.00011548549 0.00061882666 -0.0028718093 -0.0023627456 -0.003673426 0.004164479 6.0762803e-05 -0.0022549524 0.002851037 0.0045903316 -0.002050087 0.003982812 0.0026880773 0.0029397837 0.00025649133 0.004106917 -0.0035098544 -0.0041216956 0.00464976 -9.9034856e-05 -0.0009834792 0.00230189 -0.002047945 0.0013715256 0.0034703042 0.003032805 -0.003755698 0.0046914723 0.0023359605 0.0019831278 -0.0031218955 0.0042301444 -0.0010749231 0.0044129346 -0.0026814023 -0.004064771 0.0034122928 0.0008356616 -0.0010992017 0.0047569294 0.0047471323 -0.0048870826 0.001252574 0.0030783187 0.0019365707 0.0010113936 0.00021514183 0.0003370534 -0.0019103127 -0.0035702093 -0.0010442554 0.0019618394 0.0044097165 0.0046298797 -0.0029880241 -0.0047015483 0.004882569 0.0017151006 0.0025833556 0.0031412619 -0.0014023249 0.0036615406 0.0014152778 0.001435497 -0.0011900949 -0.0015641039 -0.0011849367 0.0021384007 3.8238733e-05 -0.004792436 -0.004832829 -0.0030741694 -6.4494234e-05 0.0009986617 0.0047161775 0.002792453 -0.0021454873 0.0001390935 0.002482515 0.0038496032 -0.00057218416 0.002161696 -0.0029074687 -0.00040224125 0.0040500006 -0.0011800617 -0.004832099 0.0028898525 -0.0019648746 -0.00061157375 0.0049902853 -0.0011281972 -0.0023788332 -0.0026647751 0.0034905386 -0.0028544106 0.0010569055 -0.0026278822 0.0030604538 0.0021787283 0.0013034444 -0.00074554613 -0.0013732563 0.004496513 0.002608061 -0.0010811536 -0.004735271 -0.003713458 -0.00053167983 -0.00039739168 -0.0012813333 0.004841874 -0.00022945937 0.0029368093 -0.0037238474 -0.001252865 -0.0027749934
运行 -0.0035695075 0.0006205153 -0.0035883582 -0.001122309 0.0018596518 0.002916562 0.00059909164 0.0010513657 -0.0020551956 0.0036126666 -0.0031535209 0.002323608 -0.0041099866 0.001018234 -0.002488526 -0.002123844 -0.0015544922 0.0028276043 0.0028992004 -0.0024873244 0.00038666546 -0.004247889 0.0039049028 0.0046286457 -0.0013711638 0.00040011166 0.00037332595 0.0027389424 -0.0043030395 0.00029222787 0.0034347111 0.0011157972 0.0005623382 -0.0046610776 0.0042411834 -0.0031320637 -0.0014961868 0.0017468935 -0.0003863138 0.00070564565 0.00089099584 -0.0034144497 -0.004862406 0.0045202924 0.0030990273 -0.0034564638 0.0017017412 0.00010303199 0.0023768728 -0.0035599715 0.002013477 0.0021737171 0.0049786847 -0.00223687 -0.00069463195 -0.0036586607 -0.0048489147 -0.0045401286 -0.00051137747 -0.003251645 0.002424864 -0.0030820132 0.0012595928 0.00036972045 -0.001696077 -0.00048961164 0.0049895626 0.0045729433 -0.0022309148 0.0045415135 -0.0028208815 0.002965461 -0.0015486091 0.0017158758 0.0015086132 0.0034502305 -0.0011869419 0.0043875184 0.003794714 -0.004773823 -0.0040041045 -0.0038189483 0.0014616287 -0.0013973612 -0.0034647603 -0.004064132 0.00415459 0.0009952444 -0.0046640085 -0.0023963582 0.0015683692 -0.002356603 0.0026404215 -0.0021167207 0.001320898 -0.0040228437 0.003104943 0.0024094444 0.0003935963 0.0015067238 -0.0043637413 0.0010650808 -0.0004367721 -0.004659544 -0.0047140713 -0.000705359 0.0022162043 0.0018520355 -0.0032493465 -0.0034365337 -0.002499706 -0.0011434221 -0.0036251438 -0.004801659 -0.0013718146 -0.0041814204 -0.003019438 -0.0028354644 -0.0011720688 -0.0008534986 -0.0044784993 -0.0003675997 0.004076253 0.0038452148 -0.003603058 -0.0018334156 0.001559276 -0.0047853612 0.0007382196 0.0032622332 0.0028732098 -0.004381531 -0.002258572 -0.0040700804 2.2978187e-05 0.004631817 0.0029866528 0.002533654 0.0025305313 -0.0016214586 0.004776092 -0.0036782122 -0.0036351937 -0.0011326945 -0.00038928032 -0.0016080517 -0.0002962929 0.0037444115 -0.0003487593 -0.00081247033 0.0013721996 -0.0041795503 0.003927902 0.004268052 -0.0047920435 0.0012231332 0.0049524857 -0.0038329018 -0.0034834594 -0.0038682586 0.0041979617 -0.00034066796 0.0045722043 -0.0040791105 0.0018715423 0.0013175213 0.0003713566 0.001163838 -0.003734547 -0.0046791867 0.0011772882 0.0030742276 0.0039928444 0.0028679473 -0.00038866818 0.004153082 -0.004668157 0.0017030663 0.00013337671 0.0019286221 0.0036928917 -0.0033625835 0.0027922404 -0.0047611124 -0.00040222943 -0.0043443684 -0.0025493365 0.0046446132 -0.00092913094 0.0014572132 0.0045356397 0.0044690664 -0.0041042175 -0.0015061569 0.004943303 0.0025522155 -0.00079404353 -0.0043460107 0.0014807582 -0.0033379488
游戏 0.0040661357 -0.002228667 -0.00053417863 0.0005031824 -9.555698e-05 0.0005740887 0.0030569304 -1.013577e-05 -0.0016229827 -0.0007553643 0.0029486495 0.0007570511 -0.000362131 0.0046666237 -0.0024606418 -0.00041920482 0.0045877057 0.0033747137 0.000751428 -0.0044412804 0.000574373 -0.0011441278 0.0046841186 0.0006049639 0.0007450318 0.001203205 -0.0009180033 -0.002499817 0.00011621475 -0.0010070902 0.0033004666 0.0044700615 -0.0003373772 0.0014885074 -0.0030538272 0.0008496624 -0.0034631162 -0.0043470133 -0.0029501014 -0.0044782376 0.0036387974 -0.0028860157 0.004138176 -0.0036217726 0.0017108375 0.0048374995 -0.003892724 -0.0049725287 -0.0021645732 -0.0013415653 -0.00013564467 -0.0044157756 -0.004308779 0.0014001053 -0.0041032033 -0.0045346683 -0.0011702329 -0.004315904 -0.003528325 -0.0042005754 -0.00015066445 -0.0022821492 0.0033135873 0.0007635802 -0.0016707379 0.003054486 -0.0030066425 -0.0023280848 -0.0036037546 -0.00216829 -0.000904665 0.0032448214 -0.0013851965 0.0024594837 0.0034522212 -0.0037318529 0.002282425 0.0030634892 -0.0014772373 0.003312511 0.0030629397 -0.0032217426 -0.0033822758 0.0012694794 -0.00081190944 -0.003032564 0.0047496045 -0.0025650733 -0.0032770485 -5.9942602e-05 -0.001350714 0.00022220015 -0.0017687291 -0.0002096653 -0.00035430788 0.00041141032 0.0040974086 -0.0028683536 -0.000829764 0.0027858038 0.00408406 -0.0022215163 0.004492717 0.0041268324 -0.002217611 0.00015155255 0.0021372456 -0.00196316 -0.0027799828 -0.0032561612 -0.0003353691 -0.00014796079 0.0022315425 -0.001237027 -8.630454e-05 0.0012309379 0.0024337994 -1.5404225e-05 -0.0031697047 -0.0046304036 1.332879e-05 0.0033309471 0.00073301134 -0.004483261 -0.0039693024 0.0032759511 -0.0018928403 0.0031274962 -0.003340516 0.004239831 -0.0032581622 0.00164401 -0.0005284929 -0.003393764 -0.0016437983 -0.000580706 -0.00273547 -0.00060567376 -0.0037816567 0.0013233298 0.0045350743 -0.0011886251 -0.00048825503 0.0017567808 0.004332544 -0.0029609264 -0.003443789 -0.0014664924 0.004573848 0.00043313383 -0.0043392004 -0.0007234895 0.004739733 -0.0037747438 -0.0026790493 0.0046582813 -0.004486863 0.0019129538 0.0003327203 0.0033303506 0.0041563767 -0.0014253926 -0.0019961565 0.0044489587 0.001044823 0.0031244708 -0.0047228574 0.004795062 -0.00067415414 -0.0030260575 0.0014962673 -0.00022830546 0.0023532463 -0.0011415106 -0.0020689212 0.0011389494 0.0041771918 -0.002497803 0.0013343394 -0.0039952775 -0.0033866733 -0.00023383439 -0.004383864 0.0013947189 0.0007992977 -0.0011598462 0.0025018954 0.0048743933 0.004227134 -0.00094011246 0.0010290759 -0.0020018446 -0.004120703 0.0031389778 -0.0009745908 -0.00033310233 -0.000885666 -0.0022678329 0.0020308548 -0.0021350903
异常 -0.004789536 0.004471803 0.0020826487 0.0046176207 0.0033219336 0.0014624486 0.004902279 -0.0022124418 -0.0034018422 0.0021138063 0.0018646023 -0.0028324607 0.0048526465 -0.001779251 0.0047749653 0.00041738595 -0.0031694022 -0.0009886128 -0.0036887296 -0.0014898432 0.0005208772 0.004741604 0.0046781804 -0.0032981196 0.0017376709 0.0011378477 -0.0012447444 -0.0046148393 0.00051359134 -0.004083077 0.003160268 -0.0029001993 0.0027678714 0.0049171313 -8.000455e-05 0.0022643707 -0.0009047498 0.0036805824 0.0019701566 -0.0045054094 -0.0011993177 0.001814484 -4.9786915e-05 -0.00060066837 -0.0005277482 -0.00083584664 0.00030249287 0.002082662 -0.0021265124 -0.001916916 -2.6409884e-05 0.00013468528 -8.440779e-05 -0.0023928846 0.0021568194 -0.0010860193 0.0010518276 0.00033327978 0.0029850022 -0.003421378 -0.003408042 -0.0022382515 0.0047181733 -0.000795985 -0.0047148797 -0.00027253575 -0.0022245834 0.003000204 -0.004792106 0.001429579 -0.00462667 0.00062493474 0.0029997637 0.0036988768 -0.0038109408 -0.0030266778 -0.003419408 -0.003959387 -0.004749801 -0.0010628068 -0.00041798918 -0.0036282998 0.0033937045 0.0005598405 0.0029145933 0.00073647365 0.00039470455 -0.003684267 -0.0010883887 0.0021606581 -0.0025427968 0.0005654258 0.001441761 -0.0007682226 0.00496642 0.0041750465 0.0012078995 0.0035593181 0.0029458804 -0.0027904618 -0.002578263 -0.0033343518 -0.0038886308 0.004155592 -0.0009912254 -0.0034276699 -0.0020773083 0.0025722042 -0.0014346469 -0.001874933 0.00081075705 -0.001388223 -0.0007922238 0.00053727534 -0.0014890541 0.004259875 0.0019555748 -0.004979705 0.0031299717 -0.0033773123 0.0003847375 0.0022022382 -0.0025518273 -0.0010553927 0.0040479614 -0.0021220127 -0.0038183401 0.00462921 -0.0010778076 -0.0023598457 0.004285635 0.002141787 0.002162537 0.0046425113 -0.004226772 0.0026278042 0.0010197317 0.0020942548 0.0008489967 0.0022321895 0.0022432683 0.0030524284 -0.0016011366 -0.0022879895 -0.00021326996 0.0012669364 -0.0016316731 0.0030290252 0.002077179 0.0038825092 0.0012847066 0.004058564 -0.000693643 0.0040391856 0.00185861 -0.004023883 -0.001966915 -0.001236007 0.0024466563 -0.00043610344 -0.0014155318 0.0039170687 0.004661706 -0.0008075084 -0.0025797663 -0.0023510084 -0.0024231584 -0.0048016766 0.0006860478 -0.0021125737 0.0012634237 0.0028073958 -0.0020330644 -0.004798554 0.0007733912 -0.0033502448 0.0012476556 -0.0018904197 0.0035394048 0.00032012787 0.0017805671 -0.001369642 -0.00085532054 0.0038266066 0.00070387765 -0.0029253848 -0.0039174636 0.00061637745 0.0032274928 0.0027783273 -0.0044887713 0.0042963177 0.0020236 0.0037350075 0.0048734345 -0.00364499 -0.0045202295 0.0029181605 0.004695864 0.0017535588
画面 0.0035443986 -0.000783965 0.0039737495 -0.0047443295 -0.0040147495 -0.0033201855 -0.0020017272 0.002494608 -0.0019067794 -0.0041599525 0.0042058886 -0.001873501 0.004304348 -0.0024478757 0.001959297 0.0024610085 0.0011963046 -0.0014094019 0.0014245623 -0.004128118 -0.0013827699 -0.0012955791 0.003624503 -0.0017317015 -0.0032998514 0.0021702135 -0.00023724258 -0.0017987782 0.003441236 0.0019361562 -0.0019501006 0.00038594424 0.004571751 0.003877328 0.003180936 0.0023336513 0.0011922449 -0.00092081307 -0.0031856466 -0.00015090525 -0.0007826942 -0.00028614284 -0.0031314355 0.0037170236 -0.0032957464 -0.0036196387 -0.0013785731 -0.0007577002 -0.0038178586 0.0003491205 -0.0026630557 -0.0006377721 -0.0036825556 0.0009802842 0.0016365993 -1.1569262e-05 -0.002724179 -0.00086304307 0.0035424584 0.0018681294 -0.0044405246 -0.0017067754 0.0011770511 0.0010690099 -0.004732004 0.002285583 -0.0043284986 -0.003693534 0.001741556 -0.0017354792 0.0017822355 0.0044470453 -0.0017871612 0.0046602124 0.0008555192 0.004923887 0.0028525216 -0.0045747417 -0.0016638654 0.0032650875 0.0028013897 0.0043527577 0.0034630513 0.004019444 -0.004911504 0.0021494126 -0.0025150382 0.001756193 0.003028344 0.0021960658 0.0037561797 0.00074885786 -0.0006324708 0.0028842003 -0.0028197838 1.9295812e-05 0.0047282935 -0.002740625 0.0019071394 -0.0040565105 0.0048851464 0.004082557 0.0006404859 0.0025487894 0.0007040644 -0.0032275808 -0.0007140255 0.0032245826 -0.002308653 -0.0019965328 0.0024622022 0.0013565492 -0.00092398765 -0.0014384717 0.0030053658 -0.0028583694 -0.0016183513 -0.0032439125 -0.0021173162 -0.0042904974 -0.0022348945 -0.0042556147 0.0007018888 -0.0043090982 -0.004958328 -0.0041008126 -0.003386333 0.0033402925 0.0018922782 0.00017808318 -0.0014789909 -0.0037141603 0.00026670934 0.0002499461 9.780943e-05 0.00042629777 0.00039316536 -3.408015e-05 -0.004003527 -0.0029351367 -0.004191456 -0.00065602124 0.0009103185 0.003708564 -0.0009817135 -0.0011626459 0.0047435774 3.985226e-05 -0.0012022608 0.0043024234 0.0013435018 -0.0026719861 0.003294053 0.0022550768 -0.0035272336 -0.000161587 0.00041724325 0.0028736787 -0.00085882726 -0.001403265 0.0008742154 0.00042358576 0.0005964136 -0.0013171411 -0.0029928922 0.003661492 0.0037936878 0.0041481787 -0.0042994237 0.0013182127 -0.0017799813 0.004810202 0.0014518839 0.0023205567 0.0011928076 0.003304239 -0.0028716451 0.0039472063 -0.001205461 -0.0022809429 -0.0010304952 0.004866779 -0.0034282953 -0.00109586 0.0035004998 -2.7874708e-05 -0.0031474836 -0.0031967629 0.0044701975 0.003214788 0.0023867965 -0.0016310238 -0.00463381 0.0018934441 0.0035802752 -0.0028164447 -0.0039325063 -0.00148637 -0.0024659492 -0.0011575556
现象 -0.0009721082 -0.0026337607 0.004723557 -0.0046493663 0.0022519738 0.002702089 -0.0007046312 0.0045035463 0.00494268 -0.0027375214 -0.0030105 -0.0033734865 -0.003947441 -0.0015239584 -0.0027970136 -0.00417234 0.00039145112 0.0014973283 0.0032073718 -0.001314475 -0.0022267383 0.00062478543 0.00019573093 0.0040584994 9.140014e-05 0.003615793 -0.004132258 0.0042167683 -0.0009444547 0.004350577 -0.0038084185 0.0008981931 0.0005282432 2.3002625e-05 -0.0025516266 -0.004623849 -0.0036321087 -0.003975587 0.00095686375 0.00023923337 -0.0009065688 0.003560083 -0.001237846 -0.00067365466 -0.004450282 -0.0049627065 0.004474699 -0.002876969 -0.0031864988 0.0025997036 0.0033349968 -0.0034158207 0.00047987996 -0.0030042368 0.0008236718 -0.0021446394 -0.0017203987 0.0010928332 0.0043307887 0.0033640552 -0.0048385286 -0.0028110521 0.0039401664 0.0009946787 -0.002128026 0.00029940606 0.0047604805 -0.00055135845 -0.004712319 0.00080420496 0.0031161774 0.003141185 0.0020458251 -0.0028251195 -0.00018534661 -2.765894e-05 0.0022858977 -0.0040207948 -0.0040091546 0.00013237535 -0.0043041497 0.0029100783 -0.00020890594 0.0049855886 -0.0026719887 -0.00024306953 0.0038783867 -0.0020339661 -0.0025079502 0.0007950354 0.0013253469 -0.0012824797 0.0032237642 -0.0038299763 0.0016967803 0.00024498522 0.0043660915 0.002991357 0.003407681 0.003911272 -0.00475006 0.0047811116 -0.0038853777 -0.0013227541 -0.0024532045 -0.0024833484 -0.0040117954 -0.0038917924 -0.002276606 -0.0006376809 -0.0025514942 0.003070271 -0.0047583096 -0.0026535522 0.004718576 0.0034956646 0.003837908 0.0021173698 0.00025354623 -0.0029905718 0.0030093885 0.0013175154 0.0038497169 0.0031969214 0.003971285 0.0043287035 -0.0049478775 -0.0033778525 0.00066878734 0.0032201516 0.003686908 0.0027584904 0.0038308126 -0.002562784 0.0032922048 -0.0020541865 -0.0045276713 0.00457084 0.0006657022 -0.0013798397 -0.0012389213 -0.0021102394 0.0024061685 0.002200111 -0.0013266813 -0.0036709404 -0.0017829257 -0.00016830742 0.0030479461 -0.0014186692 -6.0447455e-05 0.00043986322 -0.0035478247 0.0010325009 -0.0007162118 0.0014010746 0.0024211109 -0.00067600963 -0.0013900715 0.0038693238 0.0025227994 0.0033567608 0.0022578216 0.0043335776 0.0037374848 -0.00054094376 0.004373819 0.0023008592 0.0027203166 -0.0006930423 -0.0010206592 -0.0022121728 -0.0042575984 0.0015188641 0.004441596 0.004459871 -0.00097117724 0.0030430788 0.0018898618 -0.0021479828 0.001021462 -0.0027189427 0.004104446 0.0027164542 0.0015922171 0.0020512843 0.004328575 0.0036360174 -0.0004167366 -0.003536384 0.0041902363 0.003616792 0.0008652359 -0.0006737459 -0.002945046 -0.0022665453 0.004323983 -0.0015675538 -0.0031694097 0.0049350387
闪退 0.0038483231 0.004560321 0.00056775095 -0.0041625397 0.004212508 -0.0018481154 0.0028710866 0.0021957897 0.0048449724 -0.004646749 0.0046042027 -0.004640764 -0.003453856 -0.0045510973 -0.002773555 0.003684448 0.004582239 -0.0016626758 0.0018615252 -0.0018126017 0.0039407355 0.002933438 1.0430813e-07 -0.0018143373 -0.003612153 0.002384308 0.0007264894 -0.0013065928 0.0039189034 -0.0020248073 -0.004574493 -0.0011277354 6.2573556e-05 -0.0033196276 -0.002743308 -0.0042498885 0.0046149367 0.003712014 -0.00014762163 0.0036838318 0.003975394 -0.00039178669 0.0033060454 0.0018837618 0.0025384212 0.0036264956 -0.0023696946 -0.0010927665 0.0004365617 0.002118103 0.0016521657 0.0025479137 0.0022932428 -0.0042192545 -0.0015919197 -0.0036183798 0.004840711 0.0025032996 8.542061e-05 0.002056489 -0.0038280655 -0.0031473255 0.0015381968 0.0032673192 0.0019749373 0.003009011 -0.0009930659 -0.0016725648 0.000103585124 -0.0015971804 -0.0027584522 -0.0038942802 0.0032677716 -0.0005451685 -0.0009454399 -0.0039023876 0.0046687867 0.00043407083 0.00088481844 0.001245833 -0.0036929965 0.0008194113 0.0014882815 -0.004283515 0.002477901 0.0012167043 0.0037489564 0.0025221491 -0.0015158582 -0.0035814685 0.0035481066 0.0009507674 0.002599618 0.0031905544 0.0009561396 -0.0030638056 -3.1483173e-06 0.004134149 -0.003049274 0.0047191405 -0.0035954714 0.0021164452 0.0010816973 0.0037203573 -0.0024446326 -0.0022821731 -0.003049087 0.0016496837 -0.0022497314 0.0042614425 -0.0021444135 -0.00455271 -0.0024081778 0.0032082452 -0.003185662 -0.0026307683 -0.0036522055 0.0030111307 0.001678797 0.0014241951 -0.0015692753 0.0030154455 -0.0030763727 -0.0009900504 -0.002991541 -0.00049784005 -0.001010493 0.004242973 3.900051e-05 -0.004287663 -0.0027145492 -0.003437993 0.0013461906 0.004728324 -0.002907998 0.004132513 0.004266026 -0.0035313196 -0.0044416063 0.004734592 0.004187182 -0.0023454458 -0.0033630205 0.0039210683 0.0018816728 0.004047752 -0.003785773 -0.0047625424 0.000788703 -0.004902884 -0.0024429422 -0.0017300516 0.0048104613 0.0043117846 -0.0014178038 0.0029134364 0.0041185473 -0.0011314905 0.004764271 0.0035801076 0.0010207504 -0.0019243818 -0.002540875 -0.0015258264 0.0039439322 -0.0030952173 -0.0014575112 0.004595511 0.0017283278 0.003036306 -0.004016408 -0.00037575245 0.0027612238 -0.0023572342 0.0037392466 0.0046597957 -0.00020468414 -0.0010318005 -0.00029667915 -0.0028929447 -0.0041931407 -0.0007534367 -0.0012785918 0.002191217 -0.0034337586 0.0027068479 -0.0033725428 -0.003910145 0.004235856 0.004459307 -0.0017406201 0.0017457074 -0.0028978675 -0.004375043 -0.0027577858 0.0033743645 0.0032088798 0.0047190366 0.0035276425 0.0033774762
多次 0.0006500834 -0.0049021514 0.0022938813 -0.0002691114 0.0031660479 0.00089173735 -0.0015648991 0.0038799865 0.0007773328 2.76047e-05 -0.002306477 -0.004226762 -0.003883416 0.004335255 -0.00446248 0.004517358 -0.004640509 -0.00013837815 -0.0009535235 -0.004465573 0.00431503 0.0033889068 0.0015097195 0.0024167264 5.6095123e-05 0.0047123404 0.0035106437 -0.004926863 -0.0022166104 -0.0006450558 0.0015238613 -0.0021619762 0.0007245833 -0.0039229495 0.0013890368 0.002351346 0.0024686563 -0.0015878511 -0.0042135203 -0.004610309 -0.00036144973 -0.0036637324 -0.0034074814 0.0030600028 0.0035861516 0.0010587096 -0.0039497004 -0.002849494 0.0040259226 0.001960422 -0.002620235 -0.0036959522 0.00038577736 0.0017318773 0.0010395967 0.001550402 -0.00281025 -0.004944743 -0.0035104186 0.000115154384 0.0023093396 0.002263154 0.0009399062 0.0025853373 -5.2680374e-05 0.0020570832 -0.0045616203 0.0038504559 0.003073737 0.0025620782 0.0036033345 0.0042198985 0.00036934792 -0.00085193035 0.00025931417 -0.0046583903 0.004203107 -0.003189966 0.0042139213 -0.0021221775 0.00032342135 -0.0045820842 -0.004779284 -0.003918405 -0.0038655282 0.000187791 -0.0036132312 -0.0024751066 -0.0026358534 -0.002144649 0.0035061557 0.002414695 0.0043413853 0.0035467958 -0.002847203 0.003620398 -0.0046474515 -0.0012937844 -0.0038785832 0.0020963007 0.00090011535 0.0035230457 0.0014723492 -0.0034904247 0.0038563388 -0.0029944635 0.0044988543 0.0014796024 -0.0020076465 -0.0023444968 -0.002208361 -0.0030732285 0.0046893703 -0.0013247979 0.0038862198 -0.0048401677 0.0010543955 -0.0006168073 0.0037721144 -0.0045273006 0.0037187815 -0.002552898 -0.0030068874 -0.0028245782 -0.0016895848 -0.0017055481 -0.0015978324 -0.0037461007 0.00035438835 -0.00028803587 -0.00084199966 0.0018785661 -0.0038100947 -0.0016107112 0.0025776708 0.0042719315 -0.00490497 0.0035976684 0.0026547438 -0.0019398486 0.0042880788 -0.004610996 0.0036243403 0.002681917 0.0006467974 -0.002599877 -0.0020893263 -0.00167839 0.00080414355 0.00079335214 0.0036941217 0.0049887965 0.0044336687 -0.0020032246 0.004822695 -0.00031477035 0.0024327165 0.0012745082 -0.00031490505 0.0018337237 -0.002659707 -0.0028783388 -0.003802322 0.00095321715 0.0032629347 0.00044106424 0.00062847434 0.0015857982 0.004067333 -0.0038500302 0.0011303759 -0.003737055 0.0018549061 0.004755275 0.0037601292 0.0032130152 0.004007388 0.0032755726 0.003428338 0.004341044 -0.0024740202 0.004606477 0.0025296009 -0.0010651249 0.0042437245 0.0025406713 0.0048244772 0.0014162004 0.004933769 0.00059850217 0.0045645917 0.0017934835 0.0032824026 -0.0018056654 0.0033964545 0.0036217868 -0.0010667306 -0.00092977704 0.0018058729 -0.0035182135
